digraph Tree {
node [shape=box, style="filled, rounded", color="black", fontname=helvetica] ;
edge [fontname=helvetica] ;
0 [label="IOP_FIRST <= 11.0\ngini = 0.56\nsamples = 47\nvalue = [26, 7, 42]\nclass = Sex", fillcolor="#d6bef7"] ;
1 [label="COMPOSTIVE_OUTCOME?_FU <= 0.5\ngini = 0.41\nsamples = 4\nvalue = [5, 2, 0]\nclass = Unnamed: 0", fillcolor="#efb388"] ;
0 -> 1 [labeldistance=2.5, labelangle=45, headlabel="True"] ;
2 [label="gini = 0.0\nsamples = 1\nvalue = [0, 2, 0]\nclass = Age", fillcolor="#39e581"] ;
1 -> 2 ;
3 [label="gini = 0.0\nsamples = 3\nvalue = [5, 0, 0]\nclass = Unnamed: 0", fillcolor="#e58139"] ;
1 -> 3 ;
4 [label="SCLERA_Radiation dose_cGy <= 157.5\ngini = 0.52\nsamples = 43\nvalue = [21, 5, 42]\nclass = Sex", fillcolor="#c7a7f3"] ;
0 -> 4 [labeldistance=2.5, labelangle=-45, headlabel="False"] ;
5 [label="Lengh_CME_NEW <= 10.5\ngini = 0.3\nsamples = 6\nvalue = [9, 0, 2]\nclass = Unnamed: 0", fillcolor="#eb9d65"] ;
4 -> 5 ;
6 [label="gini = 0.0\nsamples = 1\nvalue = [0, 0, 2]\nclass = Sex", fillcolor="#8139e5"] ;
5 -> 6 ;
7 [label="gini = 0.0\nsamples = 5\nvalue = [9, 0, 0]\nclass = Unnamed: 0", fillcolor="#e58139"] ;
5 -> 7 ;
8 [label="T_critieria <= 0.5\ngini = 0.46\nsamples = 37\nvalue = [12, 5, 40]\nclass = Sex", fillcolor="#b184ef"] ;
4 -> 8 ;
9 [label="Tumor_base <= 17.45\ngini = 0.28\nsamples = 23\nvalue = [4, 2, 32]\nclass = Sex", fillcolor="#975cea"] ;
8 -> 9 ;
10 [label="TIME_TO_1_COMP_NEW <= 34.0\ngini = 0.2\nsamples = 22\nvalue = [4, 0, 32]\nclass = Sex", fillcolor="#9152e8"] ;
9 -> 10 ;
11 [label="COMPOSTIVE_OUTCOME?_FU <= 0.5\ngini = 0.12\nsamples = 19\nvalue = [2, 0, 28]\nclass = Sex", fillcolor="#8a47e7"] ;
10 -> 11 ;
12 [label="gini = 0.0\nsamples = 1\nvalue = [1, 0, 0]\nclass = Unnamed: 0", fillcolor="#e58139"] ;
11 -> 12 ;
13 [label="TIME_TO_1_COMP_NEW <= 7.5\ngini = 0.07\nsamples = 18\nvalue = [1, 0, 28]\nclass = Sex", fillcolor="#8640e6"] ;
11 -> 13 ;
14 [label="Lengh_GLARE_NEW <= 35.0\ngini = 0.17\nsamples = 7\nvalue = [1, 0, 10]\nclass = Sex", fillcolor="#8e4de8"] ;
13 -> 14 ;
15 [label="time_to_recurrence _month <= 20.5\ngini = 0.5\nsamples = 2\nvalue = [1, 0, 1]\nclass = Unnamed: 0", fillcolor="#ffffff"] ;
14 -> 15 ;
16 [label="gini = 0.0\nsamples = 1\nvalue = [0, 0, 1]\nclass = Sex", fillcolor="#8139e5"] ;
15 -> 16 ;
17 [label="gini = 0.0\nsamples = 1\nvalue = [1, 0, 0]\nclass = Unnamed: 0", fillcolor="#e58139"] ;
15 -> 17 ;
18 [label="gini = 0.0\nsamples = 5\nvalue = [0, 0, 9]\nclass = Sex", fillcolor="#8139e5"] ;
14 -> 18 ;
19 [label="gini = 0.0\nsamples = 11\nvalue = [0, 0, 18]\nclass = Sex", fillcolor="#8139e5"] ;
13 -> 19 ;
20 [label="LENGTH_GLAUCOMA_NEW <= 65.5\ngini = 0.44\nsamples = 3\nvalue = [2, 0, 4]\nclass = Sex", fillcolor="#c09cf2"] ;
10 -> 20 ;
21 [label="gini = 0.0\nsamples = 2\nvalue = [0, 0, 4]\nclass = Sex", fillcolor="#8139e5"] ;
20 -> 21 ;
22 [label="gini = 0.0\nsamples = 1\nvalue = [2, 0, 0]\nclass = Unnamed: 0", fillcolor="#e58139"] ;
20 -> 22 ;
23 [label="gini = 0.0\nsamples = 1\nvalue = [0, 2, 0]\nclass = Age", fillcolor="#39e581"] ;
9 -> 23 ;
24 [label="LENS_Radiation rate_cGy <= 39.0\ngini = 0.62\nsamples = 14\nvalue = [8, 3, 8]\nclass = Unnamed: 0", fillcolor="#ffffff"] ;
8 -> 24 ;
25 [label="SCLERA_Radiation dose_cGy <= 564.5\ngini = 0.6\nsamples = 9\nvalue = [7, 3, 3]\nclass = Unnamed: 0", fillcolor="#f5cdb0"] ;
24 -> 25 ;
26 [label="Proximity_to_Optic_nerve  <= 17.75\ngini = 0.66\nsamples = 6\nvalue = [2, 3, 3]\nclass = Age", fillcolor="#ffffff"] ;
25 -> 26 ;
27 [label="LENS_Radiation rate_cGy <= 32.5\ngini = 0.5\nsamples = 3\nvalue = [2, 2, 0]\nclass = Unnamed: 0", fillcolor="#ffffff"] ;
26 -> 27 ;
28 [label="gini = 0.0\nsamples = 2\nvalue = [0, 2, 0]\nclass = Age", fillcolor="#39e581"] ;
27 -> 28 ;
29 [label="gini = 0.0\nsamples = 1\nvalue = [2, 0, 0]\nclass = Unnamed: 0", fillcolor="#e58139"] ;
27 -> 29 ;
30 [label="LENS_Radiation rate_cGy <= 28.5\ngini = 0.38\nsamples = 3\nvalue = [0, 1, 3]\nclass = Sex", fillcolor="#ab7bee"] ;
26 -> 30 ;
31 [label="gini = 0.0\nsamples = 2\nvalue = [0, 0, 3]\nclass = Sex", fillcolor="#8139e5"] ;
30 -> 31 ;
32 [label="gini = 0.0\nsamples = 1\nvalue = [0, 1, 0]\nclass = Age", fillcolor="#39e581"] ;
30 -> 32 ;
33 [label="gini = 0.0\nsamples = 3\nvalue = [5, 0, 0]\nclass = Unnamed: 0", fillcolor="#e58139"] ;
25 -> 33 ;
34 [label="No_of_seeds  <= 12.5\ngini = 0.28\nsamples = 5\nvalue = [1, 0, 5]\nclass = Sex", fillcolor="#9a61ea"] ;
24 -> 34 ;
35 [label="gini = 0.0\nsamples = 4\nvalue = [0, 0, 5]\nclass = Sex", fillcolor="#8139e5"] ;
34 -> 35 ;
36 [label="gini = 0.0\nsamples = 1\nvalue = [1, 0, 0]\nclass = Unnamed: 0", fillcolor="#e58139"] ;
34 -> 36 ;
}